function [y1] = myNeuralNetworkFunction(x1)
%CONFIG_77259_TRAINLM_[3 4 9 12 16]_MYNEURALNETWORKFUNCTION neural network simulation function.
%
% Auto-generated by MATLAB, 29-Mar-2025 16:39:27.
% 
% [y1] = config_77259_trainlm_[3 4 9 12 16]_myNeuralNetworkFunction(x1) takes these arguments:
%   x = 45xQ matrix, input #1
% and returns:
%   y = 1xQ matrix, output #1
% where Q is the number of samples.

%#ok<*RPMT0>

% ===== NEURAL NETWORK CONSTANTS =====

% Input 1
x1_step1.xoffset = [-0.00232487052869973;-0.141445980957512;-0.107390432192755;-0.0535307364347899;-0.091643069028218;-0.137648810522264;-0.101715973836563;-0.130244616421374;-0.151710171690246;-0.0739795056242973;-0.135912158211616;-0.167585224245449;-0.0600735437201352;-0.177989146293178;-0.096038852879444;-0.10429199711261;-0.0706575194574321;-0.0591880531844388;-0.133349053794465;-0.180150194470908;-0.21487049709594;-0.227817449821107;-0.120250374180339;-0.107060763449617;-0.0652690400636189;-0.0601646808168935;-0.188919283304946;-0.134953020940653;-0.058088183800852;-0.06482317670882;-0.1274943219047;-0.0505529633823377;-0.17610523203761;-0.0719597114798427;-0.124844867463773;-0.135522490928396;-0.136214896834409;-0.129380627752152;-0.100526562009748;-0.0689024652043562;-0.197864513562261;-0.14753792057073;-0.159704881322851;-0.216530616743816;-0.215032790005934];
x1_step1.gain = [48.1520594048201;6.54743098150389;7.64266121768749;11.5090366863629;9.71309213267206;6.75737204614377;9.00727787142519;6.58287332734377;5.05716858822212;5.74019414164992;5.34714578526947;5.51770013074024;6.27846337644456;3.24260300487372;5.86864614018114;4.56186289256338;2.65360373394335;3.71610060905123;5.05399636026999;3.33760946202186;6.41251501131831;4.84232931877886;8.46773931610675;7.64995407403012;6.03074046512538;9.14058492347121;7.21608610141069;4.55386501318561;16.3291972322735;18.2903907364693;7.91849038703882;18.5907990794543;5.99403247917383;11.0137752514473;7.25718748735962;7.89946486181859;9.24021019269516;8.04702830489359;7.37322693660439;8.85540067310844;7.61636450393571;5.04663566169658;5.97579321777999;5.28811769848733;4.5355900177304];
x1_step1.ymin = -1;

% Layer 1
b1 = [1.2452572578091318789;-0.12176598214389391939;1.3219363340997982714];
IW1_1 = [-0.88733372535383259194 0.3567168599917266425 -0.03667934921360915812 0.93704422113058449817 0.33400902375957181034 -0.22084185301932249268 0.60367494623071737969 0.13586761336434430292 -0.12516695498040794621 -0.30359278914608123223 -0.43334807046428508448 -0.10679073874017390444 0.077084561633834008942 0.45996391422765880996 0.037743810427161600396 0.34357559520851643775 -0.1416896275214528933 -0.096627089291896506307 0.25733449329052698884 -0.48514134380368817423 0.17988963429158644214 0.36813054155574931325 0.40853757829774217658 -0.30641914346601117902 -0.44458579032159895039 -0.647003584889860206 -0.50587695385776143553 -0.085879206122641216226 0.17581905492682259329 0.12919234958662667578 -0.57052435893539787948 0.33911810162274558245 0.26391948265093478909 0.084507031199737986382 0.26709035923436674764 0.30855657521946072697 -0.54040996080468617357 0.55004431765857209058 -0.44518285380393701756 0.17895379846101458488 0.12596882830013042542 0.15441677191530797653 0.30056292242289855965 0.40639862543861338118 0.006401038778981752754;-0.14494871897266456418 -0.20692353904308255497 0.71480293644802450626 -0.79745038995570982632 0.44263777875091919745 0.74926777101357655564 0.027063499315500217507 1.1098355196612206264 -0.35299741275790214035 0.52719448072170282948 -0.13106978470445851404 0.28310216081615624528 -0.4827196404541098107 -0.46055638471126164601 0.68007662264639712202 -1.8671443534411178433 0.11252016352817241496 0.74469356128613339862 -0.61448909042577737338 0.10291669457939578436 0.40612453556560468293 0.13740994396080910556 -0.217786979789877988 -0.68424278125388149352 -0.27483240949389292629 0.35410092078831445495 -0.12482236980145841598 -0.11311395333874345315 -0.14845301125348109306 0.14520846560749767207 0.11573526516022095145 0.28749839081998351809 0.046393606200021163255 -0.10445117055703041775 -0.048683687011569429237 0.092986326757449139224 -0.10458609126210362261 0.20870016698847351777 -0.084995392716456508175 0.22144440879672722122 -0.19963711254139007711 -0.13183318868349896968 0.17625643728478601613 -0.23601500343999845533 -0.16157049146019447639;0.8733354083785013211 0.18225466066822099132 0.13021056216434220842 -0.066072322788412019001 0.081084809699142681994 -0.37023340193494913564 -0.82009299488514042498 -0.95827634456579713351 0.1997851786863322765 0.18242947339063594892 0.4049103061713187901 1.499063361939709127 -0.13802551756265318827 1.0639743014187572623 1.2926810767764773669 -0.233009492208308161 0.21729876935837699747 -0.26243582507139484594 -0.91453822200129297748 0.73931412617241920593 0.90409713619332432444 0.37275305063058261634 -0.20025496877452342304 -0.54078577660651772074 0.33386120517740275337 0.24278885910647246549 -0.27471664321849853518 -0.30748988723376413645 -0.056887503956689865203 0.12139238553699858991 0.17403368915328876199 0.12862313180753326414 -0.05631088458923700496 -0.4085817917039855085 0.29132486844433091999 0.23808439830734076659 0.12252348935328866153 0.055845125855711108542 0.41444240353032701929 0.27951552374110516519 -0.20833366923059892795 0.36052238840777883766 -0.14750026264259721853 -0.65261463537699582194 -0.064007577933960002614];

% Layer 2
b2 = [2.0985522773981264422;0.43317878510318796881;0.73960951227651094975;-2.250972774364301543];
LW2_1 = [-2.2557542556160870006 1.3697080561024630452 -0.15532322702602993636;-1.3378530105587376209 1.3103072598262612836 1.0295639197202615112;0.26462004262973487512 2.1640628573889428843 -1.3123539065384357549;0.1761641178999318047 0.21898232514674279003 2.4678868158226583418];

% Layer 3
b3 = [2.5373030228885369297;1.778937091135514903;1.3142623038639500432;0.59888407817062760952;-0.13748452520946727318;0.78245886520011165288;1.2019103933603638712;-1.7992302225738501242;2.2449236356471891085];
LW3_2 = [-1.3824825268964644476 0.098822910156960555583 1.4156233574606835734 1.2310198320353840096;-0.60585916543484474861 1.5566667250172185888 0.56946724827482952946 -1.6509915133783785723;-1.4440104126946982088 -0.4313666114804440288 -0.55582244611771369769 -1.9964039939945650293;-1.3823354329547881125 -1.1833566735246929813 0.71373450820673201012 1.4947584031423992723;1.2341864059586857838 0.84547261959821695676 -1.9568868330529043398 0.84110128394188099499;1.4873519179897458642 -0.4831856458742804783 -0.83568319580467775864 -1.6045162738920133449;1.1144329813654481054 -0.93426248065364170259 -1.7004451034072709525 1.5090524645261393921;-0.61310312608705475057 1.6106104015061672996 -0.60075191418722351244 1.5436563213539786776;1.3081949400986492282 1.4808919052912947745 -1.539897935463290235 -1.1440831721866502324];

% Layer 4
b4 = [-2.0219546108419281794;1.4447495835655868035;-1.2000755618703511374;-0.62119430154046029191;-0.41248279474003790579;0.16992467835123928332;0.35512674734183830028;0.49302942882399763969;-0.82823830008628807064;-1.4617862360889306572;1.4964843756241303918;-1.9124511304192617356];
LW4_3 = [0.43165971850848916525 0.1246411511186255594 -0.023476151063907244737 -0.66418126588799153431 0.69910258545420045362 0.30310732732993056482 -0.53149423004874096765 -0.69644101190461560336 0.72452411573300246062;-0.83767238291938916905 0.65723940879621134403 0.34531559035284570269 0.83330859251859723535 -0.37505961700583945184 -0.83973908670100150253 -0.23491360361955432312 -0.33189959021030529529 -0.68158485140018121307;0.66190242958477418789 -0.72351198879259948082 0.067196892352644380098 -0.52657171311025241511 -0.62564434498257037731 -0.71491595445056466129 0.59173620080590849657 0.96502209752801082487 0.048908112757876799626;0.82245393830341395613 -0.10973774949030247472 0.77887050729700668672 0.25769038512676450958 0.1478319191325140336 1.0530620523098159769 -0.61334919695361078684 -0.26363566137565902503 1.0947860975583616483;0.91566464250455359419 -0.35668639224284032219 0.42279013036223622723 0.057914119602163922906 0.62898529902564193073 -0.60612719764772504671 0.31693478285395482175 -0.39232909521227754546 1.1749787414040460121;-0.90689060190122461336 0.66958422688151741919 -0.0057443989971326997121 0.13749826881013560431 1.2581779641368218137 -0.068105375483596131136 0.16262331484250946989 -0.22327039808941573362 -0.67399232508289053101;0.54806225676551445503 -0.70992732616294551562 0.78574541478362158742 0.13074833083503870079 -0.36633377257199789545 0.2968248931235921706 0.69727638479587683573 0.78467851960051027138 1.1214752967294339125;0.085067319929120810418 -0.036031628322140588083 0.71089587561205547228 0.68557260116712015474 0.37743917293906981136 1.0317044018649581538 0.042627280800518287107 -1.0721030687656176728 0.10667536125852822293;-0.26540455552397562711 -0.28983374788883425888 -1.3051608664866272136 0.52335731836270626971 0.084187255753597520225 0.048563747544445944049 -0.38779654295815341181 1.0127753364529850089 -0.24542194207230180747;-0.039682051564259766818 -0.34755234917107524772 1.3530585182386187793 0.18581023974527152709 -0.75563358007594050303 0.2768598407870109801 -1.5690306575978580916 -0.64111039556131166339 -0.075885389328915003881;0.37954158687776229364 1.0147859178120899326 -0.73382398275074522953 -0.8555467681703808891 0.76986335303210318148 0.26423576042467522562 -0.2983105175207935722 -0.41705401235619882216 0.20348878384337276692;-0.2687372012224789608 0.82360932087563931692 0.19929301888284287059 0.48720279235651581251 -0.64430440383584275388 0.32421415708095652208 -0.62440336979468680223 0.91985444027596030558 -0.85768572654732133653];

% Layer 5
b5 = [-1.7655697945425390394;1.5253719234129932136;1.3529843373346066571;1.0570965576157795862;-0.83097902786114619111;-0.54935884693944747603;-0.36291858696777490323;0.12319992834699058926;-0.3462154350974662731;-0.31322410421992130658;0.58824601789977537525;-0.91498495106711286162;-1.2240456204904099913;-1.3099608862539895426;1.5036958935719424435;-1.6017580305370540117];
LW5_4 = [0.13613981638046343536 0.43718043453599836345 -0.1201223550658514494 -0.34621394968128921255 0.45604839686681014621 0.54856551248913210106 0.92840532063626468595 0.48985436187979214395 -0.13796995405983678018 -0.32124085452691814035 -0.52864448388078577601 0.86661968472081207793;-0.88058520414118823805 0.7277401897883436499 -0.21174298512224501434 0.84610545339247344998 -0.093807033686516355653 -0.023422464124272818209 0.57579215840781894364 -0.37899186941441859178 -0.43917938882568607895 0.38067045899816615018 -0.21252602986580332312 0.38712207790147534769;-0.30840619405747982107 -0.67916412764058264884 -0.084902030683032356229 -0.34725178747573620663 0.79040698048565782852 0.48314424000977257423 0.37179683338979874208 0.80770087874651452786 0.59471885773965016408 -0.32300825231929342074 -0.2806762429805556569 0.12604384976343499525;-0.9623418700863014541 -0.69649862547484187036 0.17388439093893209852 0.34456700100976184187 0.16738262547685836545 -0.75276676237480844023 0.10896763594619110482 0.21482086511393191919 0.6041776930110186461 0.59992597983337836443 0.41180581331780508059 -0.010258837072550151467;0.63362592269583606353 0.11772343488899549013 0.078103622366036448699 -0.13390123341541956825 -0.84253507121436421734 -0.58512388092394962413 0.54216098191269379569 0.025009577537632492195 0.81586423067832891665 0.60141095527615584526 -0.40643531452162673379 -0.3234666795376092141;0.84245058507109060741 0.20190616600964839122 0.016596476414702993063 0.51885235702212395559 0.71299810760091741901 -0.4704947155516149282 0.045559668056321778185 -0.29441790543067691832 0.0028876186743013406745 0.55389544804986545756 0.46719788985988863761 -0.77417263860091889427;0.32729439333971599435 0.79174975771176969719 -0.00016041133737739431131 -0.12821790883904063407 0.84586363885679538566 -0.11410747437250255698 -0.62774800806264119402 0.61529023278004746356 0.19935127273756861332 0.88140934259323366895 -0.24104039667986681961 -0.39581411654963005731;-0.24514524954354308117 -0.52159515054138372303 -0.35704959550377218802 -0.69335117290418446512 -0.63932420526758138024 -0.5419136320550387298 -0.73460257079035640171 0.24796445312055875876 0.35168249810715246362 0.7774619569621067372 -0.031972993350141601376 0.42167526060728183213;-0.8709219607268036123 -0.67297816459082560048 0.62224478525006599039 0.39050834528290162551 -0.32318934401420146285 -0.05398329451273319729 0.33157090844391667872 -0.68832057058565687679 0.89225643309911417678 0.41357156541018863516 0.085405256518929037468 -0.075549191444240729187;-0.68302008767974686787 -0.58955868974206782074 -0.24176954897975322378 0.083117658002819838625 -1.0765225662604906987 -0.66397553872924885976 -0.20046610709781306769 0.24155210809894900326 0.027386324267184226217 -0.79334939483267907789 0.24514554148755432483 0.40840395813825502991;0.76886550207117210221 0.35001595415233466291 0.034918663871285671174 -0.59611785229100311412 0.72415287303150221998 0.54279663252642740279 0.73892687656522182404 -0.38400574069819348733 0.087317391208372271971 0.44615244834023504161 0.3976764173803763458 -0.62354032417943727751;-0.30807285407518886222 0.18746355547146487108 0.28905832804575576356 0.61539669874338198685 -0.28602994137429504917 0.51140542103339747815 0.63113294378858675326 -0.84877663750751985994 -0.016635564997884783739 -0.74569586191986048096 -0.5886576668509754251 -0.24382154820526377725;-0.73363852166413712208 0.40968727568611645884 0.5080622950467421628 -0.24736105468983388134 -0.11266997462898961646 -0.47791792736637539463 0.76673260556204048122 -0.78987330399351796117 -0.14663004664960171963 -0.30734028787282985373 -0.52957789338667782264 -0.49290083352353136759;-0.69700708277039280514 0.40905988616882954512 -0.082050875051704288965 0.30934065502021262928 0.67083504110327496495 0.41258882206203317811 -0.45938245546819489462 -0.62189343771494220992 -0.37558646553306151983 0.71410746295688121155 -0.6501685778534278537 0.14327165222303397951;0.40030032087065681168 -0.36239542534098606597 -0.61916954407203950161 -0.24122265160153219532 0.13332060253030125763 0.90461727938446578889 0.036784635091808771945 -0.84131363103079992438 0.32674073059889430226 0.27877915447462264797 0.52869987988230404685 0.79998646947278173602;-0.91656641033500185767 0.62517506523206856084 -0.014369423925171025819 0.28870565025597139108 -0.23751306330569327274 0.6425107658475910366 0.95668546914331720199 0.77332293037357324739 -0.53378615130741746686 -0.20924878026642529383 0.58482652350863206792 -0.75769132663262583893];

% Layer 6
b6 = -0.57874159775188560584;
LW6_5 = [0.06554722579902243218 0.32545415354992812684 -0.077530540753073279303 0.14236922154387937622 -0.2411737387367554053 -0.61530252349476155516 -0.37888085476657623607 0.27721970618819524734 -0.90411127563717275102 0.64357237878750805926 -0.43765895258560866266 0.54951683999426337301 -0.61876568362555184333 -0.043370454436451537361 -0.40461698939498108585 0.92543027949208178651];

% Output 1
y1_step1.ymin = -1;
y1_step1.gain = 2.85714285714286;
y1_step1.xoffset = 0.3;

% ===== SIMULATION ========

% Dimensions
Q = size(x1,2); % samples

% Input 1
xp1 = mapminmax_apply(x1,x1_step1);

% Layer 1
a1 = tansig_apply(repmat(b1,1,Q) + IW1_1*xp1);

% Layer 2
a2 = tansig_apply(repmat(b2,1,Q) + LW2_1*a1);

% Layer 3
a3 = tansig_apply(repmat(b3,1,Q) + LW3_2*a2);

% Layer 4
a4 = tansig_apply(repmat(b4,1,Q) + LW4_3*a3);

% Layer 5
a5 = tansig_apply(repmat(b5,1,Q) + LW5_4*a4);

% Layer 6
a6 = repmat(b6,1,Q) + LW6_5*a5;

% Output 1
y1 = mapminmax_reverse(a6,y1_step1);
end

% ===== MODULE FUNCTIONS ========

% Map Minimum and Maximum Input Processing Function
function y = mapminmax_apply(x,settings)
  y = bsxfun(@minus,x,settings.xoffset);
  y = bsxfun(@times,y,settings.gain);
  y = bsxfun(@plus,y,settings.ymin);
end

% Sigmoid Symmetric Transfer Function
function a = tansig_apply(n,~)
  a = 2 ./ (1 + exp(-2*n)) - 1;
end

% Map Minimum and Maximum Output Reverse-Processing Function
function x = mapminmax_reverse(y,settings)
  x = bsxfun(@minus,y,settings.ymin);
  x = bsxfun(@rdivide,x,settings.gain);
  x = bsxfun(@plus,x,settings.xoffset);
end
